digraph Tree {
node [shape=box] ;
0 [label="X[2016] <= 0.0008\ngini = 0.8571\nsamples = 3500\nvalue = [500, 500, 500, 500, 500, 500, 500]"] ;
1 [label="X[5845] <= 0.0003\ngini = 0.8383\nsamples = 3011\nvalue = [494, 490, 487, 497, 496, 499, 48]"] ;
0 -> 1 [labeldistance=2.5, labelangle=45, headlabel="True"] ;
2 [label="X[533] <= 0.0012\ngini = 0.5861\nsamples = 1108\nvalue = [110, 0, 0, 497, 0, 499, 2]"] ;
1 -> 2 ;
3 [label="X[359] <= 0.002\ngini = 0.5127\nsamples = 750\nvalue = [110, 0, 0, 148, 0, 490, 2]"] ;
2 -> 3 ;
4 [label="X[532] <= 0.0017\ngini = 0.3652\nsamples = 640\nvalue = [7, 0, 0, 141, 0, 490, 2]"] ;
3 -> 4 ;
5 [label="X[843] <= 0.0018\ngini = 0.1995\nsamples = 535\nvalue = [7, 0, 0, 50, 0, 476, 2]"] ;
4 -> 5 ;
6 [label="X[868] <= 0.0031\ngini = 0.0747\nsamples = 495\nvalue = [7, 0, 0, 10, 0, 476, 2]"] ;
5 -> 6 ;
7 [label="X[2517] <= 0.0103\ngini = 0.0405\nsamples = 486\nvalue = [7, 0, 0, 1, 0, 476, 2]"] ;
6 -> 7 ;
8 [label="X[283] <= 0.0454\ngini = 0.0125\nsamples = 479\nvalue = [0, 0, 0, 1, 0, 476, 2]"] ;
7 -> 8 ;
9 [label="X[313] <= 0.0234\ngini = 0.0042\nsamples = 477\nvalue = [0, 0, 0, 1, 0, 476, 0]"] ;
8 -> 9 ;
10 [label="gini = 0.0\nsamples = 476\nvalue = [0, 0, 0, 0, 0, 476, 0]"] ;
9 -> 10 ;
11 [label="gini = 0.0\nsamples = 1\nvalue = [0, 0, 0, 1, 0, 0, 0]"] ;
9 -> 11 ;
12 [label="gini = 0.0\nsamples = 2\nvalue = [0, 0, 0, 0, 0, 0, 2]"] ;
8 -> 12 ;
13 [label="gini = 0.0\nsamples = 7\nvalue = [7, 0, 0, 0, 0, 0, 0]"] ;
7 -> 13 ;
14 [label="gini = 0.0\nsamples = 9\nvalue = [0, 0, 0, 9, 0, 0, 0]"] ;
6 -> 14 ;
15 [label="gini = 0.0\nsamples = 40\nvalue = [0, 0, 0, 40, 0, 0, 0]"] ;
5 -> 15 ;
16 [label="X[1560] <= 0.0021\ngini = 0.2311\nsamples = 105\nvalue = [0, 0, 0, 91, 0, 14, 0]"] ;
4 -> 16 ;
17 [label="X[560] <= 0.0377\ngini = 0.1327\nsamples = 98\nvalue = [0, 0, 0, 91, 0, 7, 0]"] ;
16 -> 17 ;
18 [label="X[8720] <= 0.0045\ngini = 0.0421\nsamples = 93\nvalue = [0, 0, 0, 91, 0, 2, 0]"] ;
17 -> 18 ;
19 [label="gini = 0.0\nsamples = 91\nvalue = [0, 0, 0, 91, 0, 0, 0]"] ;
18 -> 19 ;
20 [label="gini = 0.0\nsamples = 2\nvalue = [0, 0, 0, 0, 0, 2, 0]"] ;
18 -> 20 ;
21 [label="gini = 0.0\nsamples = 5\nvalue = [0, 0, 0, 0, 0, 5, 0]"] ;
17 -> 21 ;
22 [label="gini = 0.0\nsamples = 7\nvalue = [0, 0, 0, 0, 0, 7, 0]"] ;
16 -> 22 ;
23 [label="X[642] <= 0.0021\ngini = 0.1192\nsamples = 110\nvalue = [103, 0, 0, 7, 0, 0, 0]"] ;
3 -> 23 ;
24 [label="gini = 0.0\nsamples = 103\nvalue = [103, 0, 0, 0, 0, 0, 0]"] ;
23 -> 24 ;
25 [label="gini = 0.0\nsamples = 7\nvalue = [0, 0, 0, 7, 0, 0, 0]"] ;
23 -> 25 ;
26 [label="X[1560] <= 0.0019\ngini = 0.049\nsamples = 358\nvalue = [0, 0, 0, 349, 0, 9, 0]"] ;
2 -> 26 ;
27 [label="gini = 0.0\nsamples = 348\nvalue = [0, 0, 0, 348, 0, 0, 0]"] ;
26 -> 27 ;
28 [label="X[7560] <= 0.0085\ngini = 0.18\nsamples = 10\nvalue = [0, 0, 0, 1, 0, 9, 0]"] ;
26 -> 28 ;
29 [label="gini = 0.0\nsamples = 9\nvalue = [0, 0, 0, 0, 0, 9, 0]"] ;
28 -> 29 ;
30 [label="gini = 0.0\nsamples = 1\nvalue = [0, 0, 0, 1, 0, 0, 0]"] ;
28 -> 30 ;
31 [label="X[8419] <= 0.0089\ngini = 0.759\nsamples = 1903\nvalue = [384, 490, 487, 0, 496, 0, 46]"] ;
1 -> 31 ;
32 [label="X[5717] <= 0.0387\ngini = 0.694\nsamples = 1414\nvalue = [383, 31, 482, 0, 480, 0, 38]"] ;
31 -> 32 ;
33 [label="X[2517] <= 0.0793\ngini = 0.5806\nsamples = 913\nvalue = [378, 21, 452, 0, 28, 0, 34]"] ;
32 -> 33 ;
34 [label="X[8032] <= 0.0319\ngini = 0.3346\nsamples = 531\nvalue = [18, 21, 430, 0, 28, 0, 34]"] ;
33 -> 34 ;
35 [label="X[5850] <= 0.0086\ngini = 0.7695\nsamples = 105\nvalue = [7, 21, 27, 0, 19, 0, 31]"] ;
34 -> 35 ;
36 [label="X[1912] <= 0.0076\ngini = 0.7155\nsamples = 86\nvalue = [7, 2, 27, 0, 19, 0, 31]"] ;
35 -> 36 ;
37 [label="X[8303] <= 0.0038\ngini = 0.602\nsamples = 56\nvalue = [2, 2, 4, 0, 18, 0, 30]"] ;
36 -> 37 ;
38 [label="X[4642] <= 0.0034\ngini = 0.6191\nsamples = 32\nvalue = [2, 2, 3, 0, 18, 0, 7]"] ;
37 -> 38 ;
39 [label="X[7434] <= 0.0038\ngini = 0.497\nsamples = 26\nvalue = [2, 2, 2, 0, 18, 0, 2]"] ;
38 -> 39 ;
40 [label="X[1062] <= 0.0127\ngini = 0.254\nsamples = 21\nvalue = [0, 2, 0, 0, 18, 0, 1]"] ;
39 -> 40 ;
41 [label="gini = 0.0\nsamples = 18\nvalue = [0, 0, 0, 0, 18, 0, 0]"] ;
40 -> 41 ;
42 [label="X[5323] <= 0.0132\ngini = 0.4444\nsamples = 3\nvalue = [0, 2, 0, 0, 0, 0, 1]"] ;
40 -> 42 ;
43 [label="gini = 0.0\nsamples = 2\nvalue = [0, 2, 0, 0, 0, 0, 0]"] ;
42 -> 43 ;
44 [label="gini = 0.0\nsamples = 1\nvalue = [0, 0, 0, 0, 0, 0, 1]"] ;
42 -> 44 ;
45 [label="X[2068] <= 0.003\ngini = 0.64\nsamples = 5\nvalue = [2, 0, 2, 0, 0, 0, 1]"] ;
39 -> 45 ;
46 [label="X[8664] <= 0.0029\ngini = 0.4444\nsamples = 3\nvalue = [2, 0, 0, 0, 0, 0, 1]"] ;
45 -> 46 ;
47 [label="gini = 0.0\nsamples = 2\nvalue = [2, 0, 0, 0, 0, 0, 0]"] ;
46 -> 47 ;
48 [label="gini = 0.0\nsamples = 1\nvalue = [0, 0, 0, 0, 0, 0, 1]"] ;
46 -> 48 ;
49 [label="gini = 0.0\nsamples = 2\nvalue = [0, 0, 2, 0, 0, 0, 0]"] ;
45 -> 49 ;
50 [label="X[4062] <= 0.0127\ngini = 0.2778\nsamples = 6\nvalue = [0, 0, 1, 0, 0, 0, 5]"] ;
38 -> 50 ;
51 [label="gini = 0.0\nsamples = 5\nvalue = [0, 0, 0, 0, 0, 0, 5]"] ;
50 -> 51 ;
52 [label="gini = 0.0\nsamples = 1\nvalue = [0, 0, 1, 0, 0, 0, 0]"] ;
50 -> 52 ;
53 [label="X[4530] <= 0.0566\ngini = 0.0799\nsamples = 24\nvalue = [0, 0, 1, 0, 0, 0, 23]"] ;
37 -> 53 ;
54 [label="gini = 0.0\nsamples = 23\nvalue = [0, 0, 0, 0, 0, 0, 23]"] ;
53 -> 54 ;
55 [label="gini = 0.0\nsamples = 1\nvalue = [0, 0, 1, 0, 0, 0, 0]"] ;
53 -> 55 ;
56 [label="X[2517] <= 0.0052\ngini = 0.3822\nsamples = 30\nvalue = [5, 0, 23, 0, 1, 0, 1]"] ;
36 -> 56 ;
57 [label="X[7236] <= 0.0072\ngini = 0.1504\nsamples = 25\nvalue = [1, 0, 23, 0, 0, 0, 1]"] ;
56 -> 57 ;
58 [label="gini = 0.0\nsamples = 23\nvalue = [0, 0, 23, 0, 0, 0, 0]"] ;
57 -> 58 ;
59 [label="X[4375] <= 0.022\ngini = 0.5\nsamples = 2\nvalue = [1, 0, 0, 0, 0, 0, 1]"] ;
57 -> 59 ;
60 [label="gini = 0.0\nsamples = 1\nvalue = [0, 0, 0, 0, 0, 0, 1]"] ;
59 -> 60 ;
61 [label="gini = 0.0\nsamples = 1\nvalue = [1, 0, 0, 0, 0, 0, 0]"] ;
59 -> 61 ;
62 [label="X[1099] <= 0.0047\ngini = 0.32\nsamples = 5\nvalue = [4, 0, 0, 0, 1, 0, 0]"] ;
56 -> 62 ;
63 [label="gini = 0.0\nsamples = 4\nvalue = [4, 0, 0, 0, 0, 0, 0]"] ;
62 -> 63 ;
64 [label="gini = 0.0\nsamples = 1\nvalue = [0, 0, 0, 0, 1, 0, 0]"] ;
62 -> 64 ;
65 [label="gini = 0.0\nsamples = 19\nvalue = [0, 19, 0, 0, 0, 0, 0]"] ;
35 -> 65 ;
66 [label="X[2562] <= 0.0083\ngini = 0.1039\nsamples = 426\nvalue = [11, 0, 403, 0, 9, 0, 3]"] ;
34 -> 66 ;
67 [label="X[2545] <= 0.0176\ngini = 0.083\nsamples = 421\nvalue = [6, 0, 403, 0, 9, 0, 3]"] ;
66 -> 67 ;
68 [label="X[5733] <= 0.0194\ngini = 0.057\nsamples = 411\nvalue = [0, 0, 399, 0, 9, 0, 3]"] ;
67 -> 68 ;
69 [label="X[6872] <= 0.002\ngini = 0.0434\nsamples = 408\nvalue = [0, 0, 399, 0, 6, 0, 3]"] ;
68 -> 69 ;
70 [label="X[6985] <= 0.0295\ngini = 0.0293\nsamples = 405\nvalue = [0, 0, 399, 0, 4, 0, 2]"] ;
69 -> 70 ;
71 [label="X[8462] <= 0.0121\ngini = 0.0197\nsamples = 403\nvalue = [0, 0, 399, 0, 2, 0, 2]"] ;
70 -> 71 ;
72 [label="X[5480] <= 0.0255\ngini = 0.0148\nsamples = 402\nvalue = [0, 0, 399, 0, 2, 0, 1]"] ;
71 -> 72 ;
73 [label="X[5334] <= 0.0112\ngini = 0.0099\nsamples = 401\nvalue = [0, 0, 399, 0, 2, 0, 0]"] ;
72 -> 73 ;
74 [label="X[6722] <= 0.0325\ngini = 0.005\nsamples = 400\nvalue = [0, 0, 399, 0, 1, 0, 0]"] ;
73 -> 74 ;
75 [label="gini = 0.0\nsamples = 399\nvalue = [0, 0, 399, 0, 0, 0, 0]"] ;
74 -> 75 ;
76 [label="gini = 0.0\nsamples = 1\nvalue = [0, 0, 0, 0, 1, 0, 0]"] ;
74 -> 76 ;
77 [label="gini = 0.0\nsamples = 1\nvalue = [0, 0, 0, 0, 1, 0, 0]"] ;
73 -> 77 ;
78 [label="gini = 0.0\nsamples = 1\nvalue = [0, 0, 0, 0, 0, 0, 1]"] ;
72 -> 78 ;
79 [label="gini = 0.0\nsamples = 1\nvalue = [0, 0, 0, 0, 0, 0, 1]"] ;
71 -> 79 ;
80 [label="gini = 0.0\nsamples = 2\nvalue = [0, 0, 0, 0, 2, 0, 0]"] ;
70 -> 80 ;
81 [label="X[6622] <= 0.0053\ngini = 0.4444\nsamples = 3\nvalue = [0, 0, 0, 0, 2, 0, 1]"] ;
69 -> 81 ;
82 [label="gini = 0.0\nsamples = 2\nvalue = [0, 0, 0, 0, 2, 0, 0]"] ;
81 -> 82 ;
83 [label="gini = 0.0\nsamples = 1\nvalue = [0, 0, 0, 0, 0, 0, 1]"] ;
81 -> 83 ;
84 [label="gini = 0.0\nsamples = 3\nvalue = [0, 0, 0, 0, 3, 0, 0]"] ;
68 -> 84 ;
85 [label="X[9247] <= 0.0034\ngini = 0.48\nsamples = 10\nvalue = [6, 0, 4, 0, 0, 0, 0]"] ;
67 -> 85 ;
86 [label="gini = 0.0\nsamples = 6\nvalue = [6, 0, 0, 0, 0, 0, 0]"] ;
85 -> 86 ;
87 [label="gini = 0.0\nsamples = 4\nvalue = [0, 0, 4, 0, 0, 0, 0]"] ;
85 -> 87 ;
88 [label="gini = 0.0\nsamples = 5\nvalue = [5, 0, 0, 0, 0, 0, 0]"] ;
66 -> 88 ;
89 [label="X[187] <= 0.0026\ngini = 0.1085\nsamples = 382\nvalue = [360, 0, 22, 0, 0, 0, 0]"] ;
33 -> 89 ;
90 [label="X[196] <= 0.0035\ngini = 0.0529\nsamples = 368\nvalue = [358, 0, 10, 0, 0, 0, 0]"] ;
89 -> 90 ;
91 [label="X[7426] <= 0.0084\ngini = 0.0272\nsamples = 363\nvalue = [358, 0, 5, 0, 0, 0, 0]"] ;
90 -> 91 ;
92 [label="X[4696] <= 0.0111\ngini = 0.0165\nsamples = 361\nvalue = [358, 0, 3, 0, 0, 0, 0]"] ;
91 -> 92 ;
93 [label="X[8032] <= 0.3105\ngini = 0.011\nsamples = 360\nvalue = [358, 0, 2, 0, 0, 0, 0]"] ;
92 -> 93 ;
94 [label="X[6888] <= 0.0036\ngini = 0.0056\nsamples = 359\nvalue = [358, 0, 1, 0, 0, 0, 0]"] ;
93 -> 94 ;
95 [label="gini = 0.0\nsamples = 358\nvalue = [358, 0, 0, 0, 0, 0, 0]"] ;
94 -> 95 ;
96 [label="gini = 0.0\nsamples = 1\nvalue = [0, 0, 1, 0, 0, 0, 0]"] ;
94 -> 96 ;
97 [label="gini = 0.0\nsamples = 1\nvalue = [0, 0, 1, 0, 0, 0, 0]"] ;
93 -> 97 ;
98 [label="gini = 0.0\nsamples = 1\nvalue = [0, 0, 1, 0, 0, 0, 0]"] ;
92 -> 98 ;
99 [label="gini = 0.0\nsamples = 2\nvalue = [0, 0, 2, 0, 0, 0, 0]"] ;
91 -> 99 ;
100 [label="gini = 0.0\nsamples = 5\nvalue = [0, 0, 5, 0, 0, 0, 0]"] ;
90 -> 100 ;
101 [label="X[3171] <= 0.0108\ngini = 0.2449\nsamples = 14\nvalue = [2, 0, 12, 0, 0, 0, 0]"] ;
89 -> 101 ;
102 [label="gini = 0.0\nsamples = 12\nvalue = [0, 0, 12, 0, 0, 0, 0]"] ;
101 -> 102 ;
103 [label="gini = 0.0\nsamples = 2\nvalue = [2, 0, 0, 0, 0, 0, 0]"] ;
101 -> 103 ;
104 [label="X[5865] <= 0.0063\ngini = 0.1819\nsamples = 501\nvalue = [5, 10, 30, 0, 452, 0, 4]"] ;
32 -> 104 ;
105 [label="X[4669] <= 0.039\ngini = 0.1486\nsamples = 491\nvalue = [5, 0, 30, 0, 452, 0, 4]"] ;
104 -> 105 ;
106 [label="X[2517] <= 0.2367\ngini = 0.0742\nsamples = 446\nvalue = [3, 0, 10, 0, 429, 0, 4]"] ;
105 -> 106 ;
107 [label="X[3254] <= 0.0062\ngini = 0.0616\nsamples = 443\nvalue = [0, 0, 10, 0, 429, 0, 4]"] ;
106 -> 107 ;
108 [label="X[5731] <= 0.4944\ngini = 0.049\nsamples = 439\nvalue = [0, 0, 10, 0, 428, 0, 1]"] ;
107 -> 108 ;
109 [label="X[3141] <= 0.0907\ngini = 0.0362\nsamples = 435\nvalue = [0, 0, 7, 0, 427, 0, 1]"] ;
108 -> 109 ;
110 [label="X[3408] <= 0.0124\ngini = 0.0274\nsamples = 433\nvalue = [0, 0, 5, 0, 427, 0, 1]"] ;
109 -> 110 ;
111 [label="X[9111] <= 0.0494\ngini = 0.0184\nsamples = 431\nvalue = [0, 0, 3, 0, 427, 0, 1]"] ;
110 -> 111 ;
112 [label="X[1792] <= 0.0177\ngini = 0.0047\nsamples = 427\nvalue = [0, 0, 1, 0, 426, 0, 0]"] ;
111 -> 112 ;
113 [label="gini = 0.0\nsamples = 426\nvalue = [0, 0, 0, 0, 426, 0, 0]"] ;
112 -> 113 ;
114 [label="gini = 0.0\nsamples = 1\nvalue = [0, 0, 1, 0, 0, 0, 0]"] ;
112 -> 114 ;
115 [label="X[1659] <= 0.006\ngini = 0.625\nsamples = 4\nvalue = [0, 0, 2, 0, 1, 0, 1]"] ;
111 -> 115 ;
116 [label="X[8664] <= 0.0041\ngini = 0.5\nsamples = 2\nvalue = [0, 0, 0, 0, 1, 0, 1]"] ;
115 -> 116 ;
117 [label="gini = 0.0\nsamples = 1\nvalue = [0, 0, 0, 0, 1, 0, 0]"] ;
116 -> 117 ;
118 [label="gini = 0.0\nsamples = 1\nvalue = [0, 0, 0, 0, 0, 0, 1]"] ;
116 -> 118 ;
119 [label="gini = 0.0\nsamples = 2\nvalue = [0, 0, 2, 0, 0, 0, 0]"] ;
115 -> 119 ;
120 [label="gini = 0.0\nsamples = 2\nvalue = [0, 0, 2, 0, 0, 0, 0]"] ;
110 -> 120 ;
121 [label="gini = 0.0\nsamples = 2\nvalue = [0, 0, 2, 0, 0, 0, 0]"] ;
109 -> 121 ;
122 [label="X[6553] <= 0.0012\ngini = 0.375\nsamples = 4\nvalue = [0, 0, 3, 0, 1, 0, 0]"] ;
108 -> 122 ;
123 [label="gini = 0.0\nsamples = 1\nvalue = [0, 0, 0, 0, 1, 0, 0]"] ;
122 -> 123 ;
124 [label="gini = 0.0\nsamples = 3\nvalue = [0, 0, 3, 0, 0, 0, 0]"] ;
122 -> 124 ;
125 [label="X[5252] <= 0.0112\ngini = 0.375\nsamples = 4\nvalue = [0, 0, 0, 0, 1, 0, 3]"] ;
107 -> 125 ;
126 [label="gini = 0.0\nsamples = 3\nvalue = [0, 0, 0, 0, 0, 0, 3]"] ;
125 -> 126 ;
127 [label="gini = 0.0\nsamples = 1\nvalue = [0, 0, 0, 0, 1, 0, 0]"] ;
125 -> 127 ;
128 [label="gini = 0.0\nsamples = 3\nvalue = [3, 0, 0, 0, 0, 0, 0]"] ;
106 -> 128 ;
129 [label="X[7566] <= 0.0047\ngini = 0.5393\nsamples = 45\nvalue = [2, 0, 20, 0, 23, 0, 0]"] ;
105 -> 129 ;
130 [label="X[7298] <= 0.0229\ngini = 0.4115\nsamples = 27\nvalue = [2, 0, 5, 0, 20, 0, 0]"] ;
129 -> 130 ;
131 [label="X[8557] <= 0.0057\ngini = 0.1653\nsamples = 22\nvalue = [0, 0, 2, 0, 20, 0, 0]"] ;
130 -> 131 ;
132 [label="gini = 0.0\nsamples = 20\nvalue = [0, 0, 0, 0, 20, 0, 0]"] ;
131 -> 132 ;
133 [label="gini = 0.0\nsamples = 2\nvalue = [0, 0, 2, 0, 0, 0, 0]"] ;
131 -> 133 ;
134 [label="X[1729] <= 0.003\ngini = 0.48\nsamples = 5\nvalue = [2, 0, 3, 0, 0, 0, 0]"] ;
130 -> 134 ;
135 [label="gini = 0.0\nsamples = 3\nvalue = [0, 0, 3, 0, 0, 0, 0]"] ;
134 -> 135 ;
136 [label="gini = 0.0\nsamples = 2\nvalue = [2, 0, 0, 0, 0, 0, 0]"] ;
134 -> 136 ;
137 [label="X[2015] <= 0.018\ngini = 0.2778\nsamples = 18\nvalue = [0, 0, 15, 0, 3, 0, 0]"] ;
129 -> 137 ;
138 [label="gini = 0.0\nsamples = 15\nvalue = [0, 0, 15, 0, 0, 0, 0]"] ;
137 -> 138 ;
139 [label="gini = 0.0\nsamples = 3\nvalue = [0, 0, 0, 0, 3, 0, 0]"] ;
137 -> 139 ;
140 [label="gini = 0.0\nsamples = 10\nvalue = [0, 10, 0, 0, 0, 0, 0]"] ;
104 -> 140 ;
141 [label="X[5717] <= 0.1921\ngini = 0.1175\nsamples = 489\nvalue = [1, 459, 5, 0, 16, 0, 8]"] ;
31 -> 141 ;
142 [label="X[8032] <= 0.0994\ngini = 0.0699\nsamples = 475\nvalue = [1, 458, 5, 0, 3, 0, 8]"] ;
141 -> 142 ;
143 [label="X[4499] <= 0.0197\ngini = 0.046\nsamples = 469\nvalue = [0, 458, 0, 0, 3, 0, 8]"] ;
142 -> 143 ;
144 [label="X[268] <= 0.0067\ngini = 0.0298\nsamples = 465\nvalue = [0, 458, 0, 0, 3, 0, 4]"] ;
143 -> 144 ;
145 [label="X[6840] <= 0.0073\ngini = 0.0172\nsamples = 462\nvalue = [0, 458, 0, 0, 2, 0, 2]"] ;
144 -> 145 ;
146 [label="X[4198] <= 0.0426\ngini = 0.0087\nsamples = 460\nvalue = [0, 458, 0, 0, 0, 0, 2]"] ;
145 -> 146 ;
147 [label="gini = 0.0\nsamples = 457\nvalue = [0, 457, 0, 0, 0, 0, 0]"] ;
146 -> 147 ;
148 [label="X[9053] <= 0.0022\ngini = 0.4444\nsamples = 3\nvalue = [0, 1, 0, 0, 0, 0, 2]"] ;
146 -> 148 ;
149 [label="gini = 0.0\nsamples = 1\nvalue = [0, 1, 0, 0, 0, 0, 0]"] ;
148 -> 149 ;
150 [label="gini = 0.0\nsamples = 2\nvalue = [0, 0, 0, 0, 0, 0, 2]"] ;
148 -> 150 ;
151 [label="gini = 0.0\nsamples = 2\nvalue = [0, 0, 0, 0, 2, 0, 0]"] ;
145 -> 151 ;
152 [label="X[195] <= 0.0192\ngini = 0.4444\nsamples = 3\nvalue = [0, 0, 0, 0, 1, 0, 2]"] ;
144 -> 152 ;
153 [label="gini = 0.0\nsamples = 2\nvalue = [0, 0, 0, 0, 0, 0, 2]"] ;
152 -> 153 ;
154 [label="gini = 0.0\nsamples = 1\nvalue = [0, 0, 0, 0, 1, 0, 0]"] ;
152 -> 154 ;
155 [label="gini = 0.0\nsamples = 4\nvalue = [0, 0, 0, 0, 0, 0, 4]"] ;
143 -> 155 ;
156 [label="X[1707] <= 0.0065\ngini = 0.2778\nsamples = 6\nvalue = [1, 0, 5, 0, 0, 0, 0]"] ;
142 -> 156 ;
157 [label="gini = 0.0\nsamples = 5\nvalue = [0, 0, 5, 0, 0, 0, 0]"] ;
156 -> 157 ;
158 [label="gini = 0.0\nsamples = 1\nvalue = [1, 0, 0, 0, 0, 0, 0]"] ;
156 -> 158 ;
159 [label="X[5857] <= 0.0099\ngini = 0.1327\nsamples = 14\nvalue = [0, 1, 0, 0, 13, 0, 0]"] ;
141 -> 159 ;
160 [label="gini = 0.0\nsamples = 13\nvalue = [0, 0, 0, 0, 13, 0, 0]"] ;
159 -> 160 ;
161 [label="gini = 0.0\nsamples = 1\nvalue = [0, 1, 0, 0, 0, 0, 0]"] ;
159 -> 161 ;
162 [label="X[3874] <= 0.0018\ngini = 0.1442\nsamples = 489\nvalue = [6, 10, 13, 3, 4, 1, 452]"] ;
0 -> 162 [labeldistance=2.5, labelangle=-45, headlabel="False"] ;
163 [label="X[8419] <= 0.1373\ngini = 0.1024\nsamples = 472\nvalue = [4, 10, 3, 3, 4, 1, 447]"] ;
162 -> 163 ;
164 [label="X[484] <= 0.0037\ngini = 0.072\nsamples = 462\nvalue = [4, 2, 3, 3, 4, 1, 445]"] ;
163 -> 164 ;
165 [label="X[2517] <= 0.1487\ngini = 0.0558\nsamples = 458\nvalue = [4, 2, 3, 3, 0, 1, 445]"] ;
164 -> 165 ;
166 [label="X[6647] <= 0.0033\ngini = 0.0391\nsamples = 454\nvalue = [0, 2, 3, 3, 0, 1, 445]"] ;
165 -> 166 ;
167 [label="X[7586] <= 0.0082\ngini = 0.0264\nsamples = 451\nvalue = [0, 2, 3, 0, 0, 1, 445]"] ;
166 -> 167 ;
168 [label="X[6593] <= 0.007\ngini = 0.0089\nsamples = 446\nvalue = [0, 0, 1, 0, 0, 1, 444]"] ;
167 -> 168 ;
169 [label="X[203] <= 0.0032\ngini = 0.0045\nsamples = 445\nvalue = [0, 0, 1, 0, 0, 0, 444]"] ;
168 -> 169 ;
170 [label="gini = 0.0\nsamples = 444\nvalue = [0, 0, 0, 0, 0, 0, 444]"] ;
169 -> 170 ;
171 [label="gini = 0.0\nsamples = 1\nvalue = [0, 0, 1, 0, 0, 0, 0]"] ;
169 -> 171 ;
172 [label="gini = 0.0\nsamples = 1\nvalue = [0, 0, 0, 0, 0, 1, 0]"] ;
168 -> 172 ;
173 [label="X[5103] <= 0.0367\ngini = 0.64\nsamples = 5\nvalue = [0, 2, 2, 0, 0, 0, 1]"] ;
167 -> 173 ;
174 [label="X[2429] <= 0.0034\ngini = 0.4444\nsamples = 3\nvalue = [0, 0, 2, 0, 0, 0, 1]"] ;
173 -> 174 ;
175 [label="gini = 0.0\nsamples = 2\nvalue = [0, 0, 2, 0, 0, 0, 0]"] ;
174 -> 175 ;
176 [label="gini = 0.0\nsamples = 1\nvalue = [0, 0, 0, 0, 0, 0, 1]"] ;
174 -> 176 ;
177 [label="gini = 0.0\nsamples = 2\nvalue = [0, 2, 0, 0, 0, 0, 0]"] ;
173 -> 177 ;
178 [label="gini = 0.0\nsamples = 3\nvalue = [0, 0, 0, 3, 0, 0, 0]"] ;
166 -> 178 ;
179 [label="gini = 0.0\nsamples = 4\nvalue = [4, 0, 0, 0, 0, 0, 0]"] ;
165 -> 179 ;
180 [label="gini = 0.0\nsamples = 4\nvalue = [0, 0, 0, 0, 4, 0, 0]"] ;
164 -> 180 ;
181 [label="X[7441] <= 0.0017\ngini = 0.32\nsamples = 10\nvalue = [0, 8, 0, 0, 0, 0, 2]"] ;
163 -> 181 ;
182 [label="gini = 0.0\nsamples = 8\nvalue = [0, 8, 0, 0, 0, 0, 0]"] ;
181 -> 182 ;
183 [label="gini = 0.0\nsamples = 2\nvalue = [0, 0, 0, 0, 0, 0, 2]"] ;
181 -> 183 ;
184 [label="X[8639] <= 0.0106\ngini = 0.5536\nsamples = 17\nvalue = [2, 0, 10, 0, 0, 0, 5]"] ;
162 -> 184 ;
185 [label="gini = 0.0\nsamples = 10\nvalue = [0, 0, 10, 0, 0, 0, 0]"] ;
184 -> 185 ;
186 [label="X[6616] <= 0.0083\ngini = 0.4082\nsamples = 7\nvalue = [2, 0, 0, 0, 0, 0, 5]"] ;
184 -> 186 ;
187 [label="gini = 0.0\nsamples = 5\nvalue = [0, 0, 0, 0, 0, 0, 5]"] ;
186 -> 187 ;
188 [label="gini = 0.0\nsamples = 2\nvalue = [2, 0, 0, 0, 0, 0, 0]"] ;
186 -> 188 ;
}